sample_id	feat_0	feat_1	feat_2	feat_3	feat_4	feat_5	feat_6	feat_7	feat_8	feat_9	feat_10	feat_11	feat_12	feat_13	feat_14	feat_15	feat_16	feat_17	feat_18	feat_19	feat_20	feat_21	feat_22	feat_23	feat_24	feat_25	feat_26	feat_27	feat_28	feat_29	feat_30	feat_31	feat_32	feat_33	feat_34	feat_35	feat_36	feat_37	feat_38	feat_39	feat_40	feat_41	feat_42	feat_43	feat_44	feat_45	feat_46	feat_47	feat_48	feat_49	feat_50	feat_51	feat_52	feat_53	feat_54	feat_55	feat_56	feat_57	feat_58	feat_59	feat_60	feat_61	feat_62	feat_63	feat_64	feat_65	feat_66	feat_67	feat_68	feat_69	feat_70	feat_71	feat_72	feat_73	feat_74	feat_75	feat_76	feat_77	feat_78	feat_79
S000	0.3699	1.4256	-0.0286	0.9193	-0.3783	0.086	0.521	0.6238	-0.9366	-0.1134	-0.5713	0.5261	0.2815	0.1467	0.8632	-0.8532	0.674	-0.6356	-0.3941	4.0239	0.0052	4.598	3.9361	-0.8613	3.9877	-0.2301	0.1167	-0.1365	0.4064	0.7658	4.0348	0.0476	0.0038	0.7332	-0.0318	2.9136	3.5472	0.5506	4.3458	0.5936	-0.8234	-0.0694	4.4373	4.3481	-0.3521	-0.0196	0.0237	-0.4318	-0.0009	-0.1432	3.8417	4.2625	4.4169	-0.2284	4.6923	0.3995	0.3038	-0.2931	0.1153	4.5165	-0.5326	-1.0469	0.7178	4.2811	-0.5517	3.8497	0.0196	-0.0846	4.2659	0.2772	0.5359	-0.514	0.2354	-0.1095	0.1948	4.0304	-0.0651	-0.1263	1.4329	4.6728
S001	0.1426	0.5148	-0.4297	-0.019	-0.0656	0.6172	-0.3607	-0.3402	0.3675	-0.3855	0.521	0.6882	0.1403	2.1592	0.6013	-0.0889	-0.0365	-0.2527	0.9546	3.8095	0.0242	3.6474	4.2637	-0.1981	4.2309	-0.3481	0.3341	0.66	-0.6667	0.0733	3.9903	0.0381	0.0999	-0.3966	-0.2735	4.7634	5.2692	0.4039	3.7674	0.2357	-0.2863	0.5414	4.6112	3.8355	-0.0584	0.119	0.7586	1.3082	-0.7737	-0.4614	2.8571	4.415	4.5149	0.3006	3.4563	-1.4527	0.6889	-0.1709	0.0888	4.0298	0.4682	0.4629	-0.2517	3.5495	0.1429	4.3388	-0.8664	0.0292	4.6999	-0.075	-0.2053	-0.4379	-0.2815	0.1262	-0.4402	4.0948	-1.037	-0.0805	-0.5635	3.6461
S002	0.6225	0.4615	0.0126	0.7149	-0.4824	0.3068	-0.0306	0.1292	-0.0787	0.1276	-0.5428	0.5283	0.0956	0.4745	0.4139	0.7798	0.1954	-0.6801	-0.1275	4.038	0.051	4.4182	4.3487	0.0403	3.9726	0.5669	0.1638	0.0102	0.4743	-0.4569	3.991	-0.1357	0.6155	-0.0012	-0.8311	3.472	4.1237	-0.0256	4.0237	0.1975	-0.5263	0.314	3.9914	3.9964	-0.3091	0.2	0.6884	-0.4376	0.6798	-0.3662	3.2616	3.732	3.7966	-0.6345	4.8375	-0.9467	-1.0397	-0.5799	-0.5008	3.9153	-0.4512	0.5749	-0.0146	4.7496	0.884	3.5035	-0.5613	-0.0489	4.0818	-0.1886	-0.0965	0.5496	-0.1021	-0.0546	-0.079	3.7591	0.4244	0.4004	0.2632	4.7836
S003	0.1191	0.1487	-0.6246	0.0988	0.7657	0.1474	0.2376	0.2328	0.7382	0.856	-0.2283	-0.6092	-0.4366	0.1519	-0.125	-0.0501	-0.805	0.014	0.3477	3.4365	-0.1754	3.5556	3.8911	-0.0156	4.4512	0.0975	0.6188	-0.6388	-0.1655	-0.2944	3.5915	-0.1688	0.1389	-0.4473	-0.1622	3.6239	4.2082	0.9785	3.9913	0.8344	-0.6325	0.3595	5.1066	3.9072	-1.0908	-0.303	-0.58	-0.4423	-0.8158	-0.3361	3.8472	3.5013	4.2365	0.4954	4.0235	1.2997	0.1313	1.21	0.3722	4.6366	-0.1865	0.2356	1.0003	4.714	1.0531	3.318	-0.0929	0.345	3.7368	-0.3316	0.9539	0.7905	-0.297	-0.3591	0.4809	3.5919	0.2542	1.0558	0.5462	4.3348
S004	-0.7844	-0.0245	-0.8111	-0.6147	0.6274	-1.4977	0.8655	0.019	0.553	0.1683	0.4441	-0.4167	-0.333	-0.2994	-0.593	-0.936	0.4634	-0.3266	-0.0966	3.9338	0.3402	4.0661	4.6391	0.5744	3.5295	-0.3758	0.0759	-0.0691	0.2851	-0.7052	3.5703	-0.5476	-0.9123	-0.5191	0.2873	3.915	3.8351	0.7463	3.8166	0.3632	-0.2857	-0.2457	4.5263	4.8268	0.0517	0.1434	-0.2944	-0.1627	-0.3888	0.7511	4.2579	3.8478	3.1742	-0.7317	4.5899	-0.2366	-0.3171	0.7909	-0.3244	4.3995	0.1361	0.9638	-0.113	3.5233	-1.2508	4.1683	-0.3044	0.1196	4.8899	0.8325	-0.9279	-0.5919	0.1605	-0.0423	0.5286	4.1007	0.1937	-0.8605	-0.2306	4.3501
S005	0.3892	-0.6584	-1.0387	-0.3394	-0.7875	-0.7437	0.0301	0.0261	-0.6829	-0.3401	-0.0551	-0.561	0.3573	-0.5861	0.1886	-0.2046	-0.9528	0.3054	-0.3274	4.7594	-0.6978	3.36	4.0883	0.5634	4.0465	-0.203	-0.0078	-0.488	0.8643	0.1234	4.0227	-0.0173	-0.0855	-0.0247	-0.2939	3.6757	3.6639	-0.1174	3.997	-0.8538	-0.0773	0.3993	3.9204	4.0037	-0.066	-0.0318	-1.0084	1.2106	0.2323	-1.047	3.7016	3.8672	3.546	-0.0047	4.3304	0.2899	0.9273	-0.4444	0.1453	3.8727	-0.7156	0.4271	-0.437	4.4021	-0.6256	3.8064	0.0316	-0.2827	4.5304	0.2094	0.6027	0.1482	-0.0708	0.6674	-0.5805	5.1804	-0.0899	-0.3902	-0.3947	2.6749
S006	0.4098	0.7071	1.0608	0.9125	-0.4065	0.2968	-0.1554	1.0154	0.1908	0.4645	0.1378	0.6747	0.208	-0.3153	0.5655	-0.0481	-0.5984	-0.2243	0.5735	3.338	-0.6565	3.4709	4.0627	-0.2926	4.1874	0.7996	-0.4125	0.1802	0.2105	-0.655	4.7227	0.075	-0.1089	0.0563	0.6804	3.5481	4.8798	-0.0803	4.229	-0.3154	-0.5571	1.0607	3.3783	3.6581	0.0777	0.6069	-0.3042	-0.0818	-0.1946	-0.3523	4.0122	4.7176	3.7269	-0.9691	3.7078	0.979	-0.0976	0.3875	-0.248	3.8038	-0.4867	0.3193	-0.2897	4.2377	-0.1219	4.252	0.1162	-0.1899	3.7904	-0.6198	-0.0851	-0.6275	-0.195	0.8159	0.0542	3.9247	-0.5254	-0.5822	-0.995	3.9305
S007	1.0595	-0.1245	0.2021	-0.6037	0.5171	0.9572	0.9096	0.7797	-0.95	1.0206	0.1579	-0.4931	-0.4557	-0.4662	-0.2476	0.4831	0.0334	1.0969	-0.5088	5.0438	-0.1699	3.5021	3.3903	0.711	4.2775	-0.8063	0.3244	0.1948	-0.1554	-0.6731	3.5761	0.8514	0.0324	-0.3054	0.4457	3.1524	3.5247	-0.8988	3.68	0.354	-0.4304	0.6771	4.0981	4.7957	0.3658	0.4249	-0.144	-0.3423	-0.6927	0.0616	4.4764	3.8355	3.3361	-0.6697	2.9147	-0.2396	0.1739	0.4698	-0.0288	4.1323	-0.0346	0.699	0.5068	3.9454	-0.0454	4.1753	0.4176	-0.3061	4.6088	0.5455	0.4175	0.6068	0.6312	-0.2253	-0.3378	4.9327	0.5728	-0.3928	0.0631	3.5747
S008	-0.1885	-0.1372	1.0243	-0.1446	0.3352	-0.581	-0.6994	-0.0002	0.4563	-0.3133	0.2591	0.058	0.0204	0.2234	-0.9774	-0.2842	0.6503	0.0333	-0.1588	3.4229	0.028	4.3276	4.5164	-0.5142	3.7	-1.1944	-0.0574	-0.4952	0.1164	-0.2039	4.6615	0.1219	0.0769	0.0538	-0.1282	4.0854	3.3083	0.6579	4.1053	1.36	-0.6809	0.2615	4.3904	3.3865	0.1386	0.4565	-0.8183	-0.8238	-0.1599	0.2426	4.0091	4.0759	4.1445	-0.1471	4.1997	0.2826	0.4514	-0.4	-0.2908	3.7339	-0.8428	0.614	0.0374	4.0747	0.4555	3.1258	-0.9909	-0.4356	4.0577	0.3988	0.4007	0.7203	0.1133	-0.0067	-0.4061	2.8372	0.6039	-0.004	0.2576	3.5072
S009	0.1562	0.025	-0.3447	-0.0693	-0.3563	0.4079	-0.133	0.2575	-0.2324	0.2445	0.3555	0.0711	0.3315	0.1209	0.667	-0.9494	-0.059	-0.2109	-0.3206	4.1877	-0.4557	3.8371	3.7704	-0.5391	3.8082	0.8084	-0.0523	0.2154	0.5423	-0.151	3.3529	0.2074	-0.7747	-1.1807	0.5179	3.7922	3.4439	-0.4771	3.4282	-0.1153	1.2797	0.1414	4.3177	4.1906	0.0595	0.7515	-0.2391	0.749	-0.256	0.4983	2.9292	3.8005	3.783	0.3553	3.5062	0.1531	0.3546	-0.213	0.0537	3.9747	0.1497	-0.2373	0.203	4.8431	-0.5559	3.6368	0.144	0.9226	3.9585	-0.3077	0.2227	0.0401	0.0045	-0.3594	-0.4885	3.5062	-0.3721	-0.5801	1.102	4.1741
S010	-0.3614	0.4514	-0.375	0.2711	-0.3558	0.7613	0.9409	0.8132	0.0941	-0.0299	0.2465	-0.6904	-0.7122	0.0578	-0.7469	0.268	-0.6362	-0.1238	0.5329	3.9322	0.8846	3.6683	3.3829	-0.377	4.2328	0.2685	-0.7932	0.7406	-0.0933	0.6183	3.7608	0.5438	0.2834	-0.7469	-0.609	4.4879	4.2994	0.7579	4.2013	-0.6481	0.5182	-0.3632	3.6776	3.4699	0.4975	0.7589	-0.1505	-0.3958	0.0462	-0.5335	4.1582	3.603	4.4328	-1.0278	4.0221	-1.4128	-0.421	0.5914	0.4975	3.6513	0.0386	0.7666	0.9646	4.1104	0.5337	3.9132	-0.308	0.5202	4.242	0.1158	0.6706	-0.2668	0.2643	0.0014	0.2446	3.7022	-0.153	-0.3979	-0.2918	4.5299
S011	0.0656	0.0075	0.8471	0.5031	0.2337	-0.5559	-0.8346	0.4066	-0.3853	-0.0214	-0.3452	0.0433	-0.3127	0.1533	0.2684	-0.5049	-0.3263	0.2058	-0.3723	3.8117	0.4817	4.0778	4.2661	-0.8664	4.4076	0.5668	-0.4009	-0.291	-0.1236	0.0216	3.9627	-0.5554	-0.1457	0.2187	-0.697	3.6483	3.3651	-0.0294	3.2326	-0.2167	-0.416	-0.332	3.6456	3.2788	0.7327	0.4683	-0.0752	0.4239	-0.2341	0.7973	3.0619	3.7745	3.71	-0.1956	4.241	0.3483	-0.4301	-0.5143	-0.1667	4.0209	0.0483	-0.2192	-0.1108	3.7599	-0.2228	3.9708	0.1953	0.186	4.799	-0.5608	-0.3727	-0.3044	0.724	-0.6028	0.2852	4.5304	0.6619	-0.6393	0.8927	4.3945
S012	-0.7178	0.0242	0.1801	-0.5878	-0.7059	-0.3035	0.0648	-0.3809	-0.2147	-0.471	0.1506	0.0302	-0.5607	0.0994	0.2113	0.084	0.1171	-0.4069	-0.0934	4.86	0.2579	3.4712	3.63	-0.5369	3.974	-0.5729	0.3145	1.0593	0.959	0.6069	5.0327	-0.2348	0.4313	0.3882	0.3705	4.0434	3.9976	-0.7177	3.732	0.7954	0.7376	-0.2198	3.6736	3.9774	-0.8189	-0.2735	-0.2499	-0.3815	-1.2922	-0.6274	3.1312	4.0551	3.9286	0.1463	3.3233	-0.3094	-0.4941	0.2726	0.8367	3.7802	0.2314	0.0948	-0.0348	3.915	-0.2738	3.7465	0.1361	-0.4429	3.9341	-1.4991	-0.3054	0.2746	-0.3295	0.3287	-0.1634	3.4699	-1.219	-0.5546	0.846	3.9501
S013	-0.9131	-0.2603	0.1225	-0.9115	-0.1335	-0.5247	0.4555	-0.2795	-0.2825	0.2894	0.2413	0.2085	-0.5744	-0.4005	0.2178	-0.3905	0.9462	0.2814	-0.1723	4.9282	-0.0319	3.5784	4.2673	-0.9329	3.7875	-0.1994	-0.3173	-1.0165	0.0349	0.1842	3.9955	0.5494	0.0446	0.0408	-0.0149	4.0812	4.0106	0.1683	4.1275	0.1531	-0.0319	1.1517	3.9507	3.1096	-0.8281	-0.103	-0.3768	-0.1294	0.5023	-0.9777	3.9758	3.7706	3.715	0.0297	3.8682	0.4243	0.0823	1.3654	-0.5491	3.2569	0.4021	-0.6432	0.4149	3.8337	0.7413	3.5617	0.1697	0.0588	3.8805	0.2307	-1.0453	-0.198	-0.0371	-0.5817	0.1576	5.458	-0.3462	0.4456	0.1458	5.2253
S014	-0.7238	0.0436	-0.7697	-0.2198	-0.6029	-0.2151	0.6844	-0.6307	-0.3156	0.3803	-0.3862	0.1872	-0.8991	0.1428	0.2355	-0.2329	0.1489	-0.171	0.3055	3.9818	-1.147	4.6707	3.7815	0.3098	3.904	0.2448	0.1353	-0.3556	-0.3053	1.012	4.3943	-0.5843	0.1331	0.2251	-0.2193	4.2566	4.1244	0.0141	3.9664	0.3969	-0.3614	0.1279	4.312	3.7523	-0.5825	-0.2374	-0.5383	0.5328	-0.2285	-0.4967	4.4985	3.3421	3.9933	0.4297	3.9798	0.523	0.2122	0.2167	0.2748	3.6602	0.2424	-0.5575	0.3551	4.0986	-0.0783	3.7868	0.0756	-0.4663	3.5984	-0.1447	-0.2144	0.1772	-0.5858	0.9323	0.4314	3.9061	0.2153	-0.4213	0.0516	4.1846
S015	-0.104	0.265	0.1193	-0.1774	0.3328	-0.3641	0.0819	-0.4644	0.1104	0.2563	1.0425	-0.6285	0.1257	-0.0725	0.9937	-0.3563	-0.1752	-0.3089	0.489	3.2378	-0.5333	3.528	3.8607	0.0717	4.6617	-1.1403	-0.4011	-0.9226	0.5487	-0.6733	4.6234	-0.293	-0.5544	1.0083	-0.334	3.5717	4.0454	-0.1502	3.9079	-0.0891	0.4956	0.1264	5.1528	4.5218	0.9683	0.1057	-1.5639	-0.0518	0.1401	-0.3752	4.0106	3.7816	3.8229	-0.1747	3.7334	-0.5599	0.1114	0.5449	0.0789	3.8844	0.6643	0.1373	0.6479	3.5573	0.5567	3.9044	0.758	0.4458	4.7374	0.0026	-0.4937	-0.1766	-0.0626	0.1867	1.6091	4.8019	1.185	-0.4282	-0.2188	3.2256
S016	-0.0759	0.2957	0.6408	-0.4601	0.7515	0.2139	0.3364	-0.6141	0.1012	0.9889	0.8542	0.6673	0.3342	-0.1946	0.7043	-0.295	-0.3993	0.1774	-0.3737	3.3382	-0.0016	3.8788	3.596	0.4967	3.0983	0.0986	0.0221	0.5378	0.4139	-0.2261	4.2545	0.5545	-0.2652	-1.2934	0.883	3.4027	3.9534	-0.6675	2.943	-0.2118	-0.2372	-0.7632	4.0466	4.3099	0.667	-0.4446	-0.3762	0.0586	-0.5263	-0.0356	4.2984	3.5985	3.5835	0.5334	4.8507	-0.4343	-0.4795	-0.1094	0.3439	4.237	0.438	0.0537	-0.7684	3.2618	1.0331	3.3842	-0.1333	-0.7556	4.3366	0.5639	1.1553	-0.1317	0.9154	0.0404	-0.1409	4.8315	-0.3254	0.0632	0.4668	4.2399
S017	0.1489	-0.8741	0.5514	-0.6589	-1.172	0.428	-0.1663	0.2005	-0.3565	-1.477	-0.4118	0.667	-0.2416	-0.3516	-0.1742	-0.8634	0.0277	0.2543	0.3418	3.9024	1.3303	4.4228	3.7826	0.5966	3.0044	-0.2084	-0.1385	-0.0476	0.0951	0.855	3.4451	0.6849	-0.0185	0.0563	-1.0778	3.5603	4.0445	0.9645	4.3541	-0.2492	-0.6251	-0.7925	3.8405	3.8316	0.458	-0.0101	0.5729	0.1027	-0.1836	-0.1992	3.1857	3.647	4.1328	-0.2701	3.3659	0.397	0.4165	1.1175	-0.187	4.2583	-0.1497	-0.2845	-0.2351	3.8968	0.4438	3.8615	-0.6413	-0.114	3.9957	-0.5567	-0.6407	-0.7827	0.4995	-0.9728	0.1878	3.7481	-0.1798	0.3887	0.2899	4.5952
S018	-0.0437	0.3507	-0.2051	0.8616	-0.4729	-0.337	0.7588	-0.504	0.2855	0.6232	-0.8216	-0.0128	-0.6694	-0.3343	0.1957	-0.7253	0.5115	0.2034	0.0246	4.2584	-0.1979	4.6178	2.4868	0.0696	3.5476	-0.691	-0.4468	-0.0814	0.527	-0.4367	4.008	0.0566	0.0935	-1.1952	0.2425	4.327	3.3826	0.8192	3.7985	-0.3394	-0.6156	-1.3462	3.9917	3.2034	-0.3027	-0.2084	-0.6548	0.8646	-0.0445	-0.2524	5.2352	3.4451	3.6714	-0.5112	3.2502	-0.3067	-0.3262	-1.4583	0.6469	3.7783	-0.2032	-0.4982	-0.3636	3.8817	-0.8245	3.7676	0.3796	0.6592	4.2063	0.1666	0.0736	-0.552	-0.2943	-0.191	-0.3168	4.2263	0.4448	0.0905	-0.5489	4.327
S019	-0.8938	-0.5247	0.1433	-0.484	-0.2977	-0.0442	0.3634	0.3089	1.3489	0.1086	-0.4525	-0.3859	0.065	0.3314	0.1091	0.6352	0.4091	-0.0444	0.0323	3.1588	-0.5136	3.5914	4.2854	-1.3896	2.8154	0.6793	0.3439	-0.0953	-0.6743	0.0647	3.4133	0.8961	0.6665	0.1262	-0.1536	4.2982	4.3554	-0.3186	4.3696	0.3186	0.2083	0.9875	4.242	3.6548	-0.0411	-0.087	-0.1232	-0.2704	-0.2291	-0.187	3.6246	4.0981	4.0357	-0.5958	4.8697	0.3162	-0.0817	-0.1927	1.4471	4.335	-1.7383	-0.3055	-0.2244	4.2535	0.2962	3.9876	-0.8705	-0.4469	2.8454	0.5031	-0.0173	0.0843	-0.3745	0.5368	0.1909	4.5079	-0.5388	-0.1624	-0.1252	3.6383
S020	-0.08	-0.2901	0.2277	-0.156	0.3487	0.2548	-0.9464	0.6683	0.5319	-0.2381	0.0632	-0.5189	-0.4644	-0.3613	-0.1534	0.529	0.1525	1.4644	0.3229	3.9037	0.4941	3.6272	3.7386	-0.2928	3.4237	0.7431	0.6697	0.1864	-0.728	-0.2927	4.0566	0.479	0.7375	0.267	1.3504	2.4982	4.4186	0.102	3.1988	-0.5273	-0.4869	-0.1096	4.2591	3.9371	-0.2275	0.6542	-0.5329	0.3823	-0.284	-0.6815	3.6812	3.7767	4.5956	-0.4463	4.2102	0.391	1.0496	0.0892	0.0483	3.7584	0.6915	0.4394	0.2324	3.3885	-0.4323	4.1774	0.118	0.0016	3.6962	-0.8926	0.2587	-0.0862	0.0815	-0.3352	-0.4384	3.4798	0.8629	-0.3138	0.8165	3.7067
S021	-0.0153	-0.4012	-0.039	-0.0808	-0.0197	0.1039	0.6083	0.0328	-0.1162	-0.7568	0.5201	0.0411	0.6367	1.2761	-0.1627	-0.5255	0.2194	0.4157	0.369	3.3403	-0.2152	3.8357	4.6154	-0.4619	4.3874	-0.0656	-0.5093	-0.1413	0.1514	-0.0699	3.9263	-0.8038	-0.2578	0.4145	-0.4842	4.4857	3.412	-0.1451	4.2329	-0.7447	1.2513	1.1036	3.8238	3.5891	-0.5349	0.4438	0.3899	-0.3629	-0.0563	0.1439	4.1927	4.2244	3.9274	-0.4548	4.2327	-0.2359	0.0413	0.4452	-0.8391	3.3257	-0.222	-0.17	0.2699	4.1448	-0.2711	4.6784	0.4413	0.344	4.4886	0.8467	0.3191	0.8835	0.7296	0.0224	-0.8977	4.4444	0.1403	-0.1916	0.0296	3.6699
S022	-0.0162	0.0488	-0.6643	-0.0941	-0.1921	0.371	0.9821	-0.039	0.2474	0.3015	0.1324	0.3	-0.9063	-0.2179	0.1198	-0.1334	-0.0032	-0.5066	0.4535	4.4896	1.0529	4.9662	4.0605	0.1794	3.578	-0.0797	0.0362	0.2158	0.2547	-0.6075	3.8479	1.1597	-0.6053	-0.6515	-0.2254	3.8115	4.341	-0.013	4.6854	1.1934	0.6912	0.5234	4.3021	3.2996	0.2746	-0.342	0.0686	-0.6664	0.3012	0.0379	4.7395	4.7852	4.1021	-0.9748	3.5911	0.0386	-0.562	0.2386	-0.0293	3.8028	-0.2045	0.7939	-0.1317	4.2295	-0.2709	3.596	0.0576	-0.0843	3.5479	-1.1256	1.5398	-0.7045	0.166	0.7194	0.2745	3.4981	-0.0014	0.4719	-0.2062	3.9371
S023	-0.2473	0.0416	0.0043	1.1568	0.0055	-0.0499	-0.2138	0.9095	0.232	-0.1146	0.2848	0.7791	-0.1142	0.3463	-0.5071	-0.0751	-0.1262	-0.2238	-0.0931	3.7968	0.6369	3.7767	4.2512	0.4837	3.8345	-0.3336	-0.6794	-0.2392	-0.6429	0.3193	4.2438	-0.2913	0.2118	-0.2033	1.0215	4.4422	3.8098	-0.2978	4.7446	-0.2016	-0.0227	0.1737	4.2747	3.2914	-0.4462	0.7764	0.6252	0.1678	1.1009	-0.282	3.2015	3.8776	4.257	-0.1476	4.6638	-0.6452	0.4165	0.4491	1.0809	4.1952	-0.476	-0.0344	-0.3323	4.5779	-0.0453	4.5973	-0.1974	-0.0712	4.0764	0.4761	-0.3443	0.5763	-0.065	0.0916	-0.0352	3.0023	-0.1877	0.1156	0.3286	4.5179
S024	0.6989	-0.6047	-0.2763	0.2933	-0.04	0.4015	-0.4355	-0.1976	-0.5151	0.2127	0.6844	-0.4334	0.0949	-0.4978	-0.7997	-0.1842	0.4549	0.4633	-0.3496	4.0766	-0.3064	3.236	3.5477	0.6272	4.4231	0.8363	0.4733	0.7127	-1.4181	0.2241	3.8017	-0.0071	-0.1995	0.0701	0.8133	3.6515	3.5965	-0.8208	4.7094	-0.819	0.1599	-0.6549	4.9162	4.2017	-0.075	-0.3093	0.2282	0.5631	-0.1257	-0.2276	3.4797	4.1636	4.863	-0.4098	2.981	-0.565	0.6815	-0.0662	0.1127	4.1444	-0.3263	-0.2751	0.6829	3.4599	0.6381	4.1078	0.3096	-0.1313	4.4468	-0.2398	-0.8827	0.4428	0.0827	-0.0492	-0.6124	4.2196	-0.8775	0.7332	-0.4176	4.5411
S025	0.1152	0.7408	0.0745	0.6766	-0.2852	0.3404	0.3311	-0.0049	0.8078	-0.3461	0.3507	-0.0146	0.8108	-0.6824	0.7753	-0.2374	0.0164	-0.7671	-0.6012	4.4236	-0.3426	4.1865	4.1511	-0.112	3.6685	-1.1735	-0.2213	0.2092	0.7099	0.154	3.5302	-0.1111	0.5761	0.0649	0.1527	4.422	4.4683	0.0446	3.3917	-0.0423	0.9375	0.4678	3.7662	3.8115	0.1711	-0.5214	0.393	0.0329	-0.4786	-0.3043	4.1887	3.8842	3.5122	0.0544	4.7675	0.0672	-1.0826	0.8081	0.0512	3.558	-0.0053	0.1562	-0.0935	4.0243	0.3464	3.4615	0.3576	0.0859	3.648	-0.6066	-1.0623	1.0686	-0.4168	-0.4093	-0.4339	3.2641	-0.0616	-0.5709	0.9361	4.1422
S026	-1.3453	-0.7442	-0.9887	0.7495	0.5773	0.5266	-0.3235	-1.3654	-0.246	0.4174	-0.8293	-0.9047	-0.4977	0.1787	0.6349	-0.4903	-0.1058	-0.8535	-0.1745	3.8256	-0.308	4.3467	4.7754	0.3538	3.5193	0.0194	-0.2142	0.0628	0.1465	0.0831	3.1416	0.7422	-0.2877	0.1607	0.1388	4.1298	4.2637	0.1723	4.4862	-0.3796	-0.1196	-0.6057	3.8055	3.9636	0.761	-0.7294	-0.9354	0.1172	-0.6916	-0.1303	5.2314	4.8963	4.4026	0.1573	3.8277	0.7119	-0.7021	-0.2492	0.0671	4.3142	0.0369	-0.4218	-0.0601	3.6481	-0.916	3.7668	-0.0351	0.4583	4.9886	0.0062	-0.0257	-0.5692	0.7924	-0.2522	0.2424	2.9958	-0.2067	0.2429	0.1019	3.3208
S027	-0.0244	-0.3187	-0.0996	0.1828	0.4908	0.9429	0.7887	0.1219	0.0925	-0.0944	0.1003	0.7772	-0.5066	-0.9511	-0.1141	0.5853	-0.8935	0.5503	-0.6248	4.1239	0.7755	3.7763	3.7684	0.1595	3.2797	0.2761	-0.4822	-0.1124	0.2032	-1.0131	5.1474	0.2665	0.2061	0.665	0.629	4.4551	3.4395	-0.8001	4.6664	-0.1232	-0.2245	0.248	4.0905	3.8236	0.1109	0.3925	-0.0086	0.0132	-0.3118	0.604	4.3584	3.3219	3.1841	0.1824	3.6729	0.6986	0.2314	0.442	-0.1458	4.2202	-0.024	-0.5966	-0.9862	2.9388	0.0613	5.1075	0.5353	-0.6702	4.2564	-0.6198	0.7602	0.337	-0.2322	-0.5411	-0.2908	4.344	-0.4036	0.0447	-0.034	3.5538
S028	0.1182	-0.3508	0.6354	0.3219	-0.8051	0.0593	-0.0586	0.3431	0.3053	0.5089	0.5558	0.8732	0.0714	-0.9318	-0.7944	-0.1772	0.2288	-0.4556	-0.1616	3.1948	-0.3606	3.718	4.1298	0.4028	4.3841	0.7803	0.0229	0.1161	0.4943	-0.0287	4.1016	0.3387	0.2863	0.0792	-0.9275	3.7436	4.2729	-0.0331	4.4042	-0.2202	0.0352	-0.1207	3.6823	4.6543	-0.8949	-0.6413	-0.5146	0.2894	0.2197	0.7222	3.3486	3.3337	3.648	-1.2226	4.5935	0.2367	-0.5796	0.1611	-0.6482	3.3295	0.3097	-0.3233	-0.672	4.1575	0.5911	4.0149	-0.4142	-0.4004	4.7322	0.3624	-0.1837	0.6131	0.131	0.1247	-0.3828	3.4799	-0.251	0.4542	-0.0557	4.5858
S029	0.1039	-0.2184	0.3938	0.401	-0.0861	-0.0773	-0.7415	-0.7862	0.5051	-0.4061	-0.1588	0.1728	-1.333	0.2091	0.4077	0.0236	0.5181	0.5992	-0.3149	3.7064	-0.8164	4.1675	3.3709	0.5206	3.7617	-0.5978	0.1631	-0.3025	0.0652	-0.4607	3.851	0.8254	-0.3593	-0.3409	-0.3798	3.1818	4.2888	0.6715	3.9679	0.9842	0.3295	-0.3894	3.6879	4.4625	-0.1916	0.3413	-0.6599	-0.1056	-0.1568	-1.1685	4.2029	4.1863	2.908	-0.5569	4.0678	0.5574	-0.7273	-0.0984	-0.2092	4.8063	0.0839	0.0082	-0.0835	4.0217	0.2787	4.2417	-0.4767	-0.6271	4.8172	0.233	-0.4656	0.8474	-0.1767	-0.2116	0.3944	4.204	-0.055	-0.0204	-0.0011	4.8699
S030	-0.1022	3.9358	0.4245	4.5833	3.315	3.8563	0.1996	-0.7638	3.7354	0.4219	0.0777	-0.2136	-0.0161	0.5044	0.6226	3.957	0.408	-0.31	0.8796	-0.4652	-0.8455	3.5938	0.7062	4.1774	-0.3003	-0.5345	-0.1785	-0.249	-0.066	4.7801	-0.3802	3.2718	0.8639	0.4014	4.181	0.1707	-0.2721	0.2712	-0.525	-0.4285	0.3967	0.5548	-0.383	0.54	0.9151	-0.0878	3.3697	-0.3665	0.4545	0.075	-0.6738	4.5047	0.8979	0.0942	-0.3825	4.0422	0.5774	0.1245	4.0818	4.3189	-0.0359	-0.3985	-0.1602	-0.3578	0.6439	0.411	4.6235	0.3299	4.1125	4.6368	-0.5814	3.6095	-0.0519	0.5584	0.2949	0.1174	-0.6048	-0.2856	-0.3269	-0.2276
S031	-0.2472	3.6277	-0.1288	4.7569	3.7692	4.228	-0.2421	-0.2462	3.2648	-0.1416	-0.1335	-0.3493	-0.6856	-1.3899	0.1185	3.8551	-0.1971	0.1842	0.6418	-0.3543	-0.5292	3.8987	-0.107	4.073	-0.2272	0.4025	-0.7576	0.1882	-0.2648	3.999	0.0035	4.558	-0.6897	-0.2749	4.319	0.697	-0.3668	-0.2528	0.4185	-0.1162	0.4279	0.5552	0.4695	-0.1331	0.8896	0.1782	3.5428	-0.2574	0.588	0.1118	-0.4994	3.6057	-0.6867	0.4365	-0.2172	3.7976	0.4509	-0.6308	3.9051	3.5439	0.3693	0.2707	-0.5286	-0.2392	-0.2468	0.5822	3.6047	0.3705	4.0024	3.3681	1.2044	4.2651	0.5517	0.2094	-0.4679	-0.2794	-0.382	-0.5925	-0.1376	0.0768
S032	-0.6704	4.3003	0.2526	3.6137	4.2371	5.0726	0.2129	-0.7919	5.0257	-0.2255	0.0389	1.0521	0.0646	-0.9183	0.1868	3.5463	0.9233	-0.6478	-0.4669	1.0292	0.0283	3.7194	0.4029	4.5259	-1.6274	0.2217	-0.1259	-0.3947	0.1075	4.3707	-0.0865	3.8447	0.26	-0.4001	4.059	0.0559	-0.6204	-1.0034	0.4403	-0.7256	0.3005	-0.2891	-0.1038	-0.3026	-0.0249	0.4038	3.5775	0.6142	-0.0308	0.7161	0.1235	3.2374	0.6703	0.1503	0.3836	4.6139	0.0366	0.8838	4.4798	3.7845	-0.5868	0.1381	0.148	-0.049	0.3966	0.3123	3.4542	0.6837	3.6722	4.1859	-0.1253	4.5226	-0.0465	-0.2277	0.2663	0.8406	-0.0205	0.8516	0.3065	0.6354
S033	-0.0553	4.441	0.0359	3.8139	4.7316	3.5445	-0.3677	0.0861	4.1603	-0.8062	0.2069	0.1637	-0.8448	0.4584	0.9307	4.1246	-0.5398	-0.1196	0.3401	-0.2891	-0.2199	3.7013	0.1593	2.9981	0.461	0.2965	-0.3901	-0.7175	0.1681	4.1208	-0.947	3.7169	1.1231	0.8617	4.5229	-0.1225	0.2804	-0.6047	-0.3753	-0.7469	-0.812	-0.008	0.3065	-0.5031	-0.4505	-1.1153	4.6489	-0.3724	-0.0083	0.0218	-0.0569	4.2939	-0.4406	0.3752	-0.453	3.9704	0.4553	-0.1025	4.6613	3.5498	-0.1741	0.2989	0.0189	-0.5131	-0.0928	0.7277	3.2677	-1.6082	2.6546	3.7532	-1.1417	3.5582	-0.1487	-0.1289	-0.0108	-0.2136	0.3938	0.4531	0.2501	-0.238
S034	0.0228	3.5932	0.0167	3.789	3.7723	4.2008	0.3286	-0.0683	4.4258	-0.8425	-0.3938	0.0227	0.2668	-0.4898	-0.9531	3.8416	-0.3564	-0.6378	0.613	0.8763	0.2158	4.2965	0.7735	4.3729	0.1296	0.5719	-1.4278	0.0361	-0.219	3.7976	0.2963	4.166	-0.04	0.3257	3.6609	-0.1163	0.2798	-0.4795	1.0174	-0.0509	-0.0503	-0.3746	-0.3016	-0.2832	-0.3236	0.9474	4.6557	0.3256	-0.3556	-0.3985	-1.097	3.5265	0.7464	0.2837	0.3095	5.1942	0.6544	0.3879	4.3214	3.3215	0.3501	0.1344	-0.6105	0.0347	0.0482	-0.2556	4.2604	-0.3964	4.0489	4.1866	-0.0885	4.3094	-0.0337	-0.4931	-0.2271	-0.4556	0.2278	-0.3159	0.1969	-0.3411
S035	0.0097	4.179	-0.1921	4.6994	3.2834	3.9069	0.0011	0.2349	3.4967	-0.7818	0.3441	0.8279	0.5636	0.6725	0.0622	4.5168	-0.2633	-1.2602	0.3096	-1.2278	0.2012	3.7605	0.1869	4.4501	-0.8685	-0.8188	-0.0453	0.1993	-0.008	4.1337	0.1104	4.2481	0.2898	1.3262	3.749	0.1352	0.4096	0.1975	-0.279	-0.8489	-1.2294	-1.0398	-0.4291	0.7107	-0.0096	0.1059	4.0825	-0.0563	-0.5768	-0.4193	-0.2637	4.9319	-0.5	-0.1102	-0.2125	3.7329	-0.5041	-0.6255	3.9059	3.6892	-0.7385	-0.5762	0.6608	0.229	-0.7296	-0.7435	4.4718	0.3668	4.2197	4.6297	-0.1515	3.8984	0.5364	0.5451	0.1586	0.666	-0.3656	-0.6086	0.2515	0.3346
S036	-0.8986	3.5377	0.2795	4.3772	3.3768	3.5485	0.0009	-0.6733	4.1712	0.4409	-0.1018	-0.4049	0.4731	-0.5447	0.3417	4.3217	-0.7938	0.3114	0.0312	0.3666	0.3926	3.9817	-0.1157	4.0266	0.6703	-0.0357	-0.2141	-0.6644	0.5654	3.9402	0.2556	4.4666	-0.0668	0.1605	4.1036	0.0856	-0.4404	0.0985	-0.6059	0.9115	0.2579	0.2614	-0.1043	0.21	-0.3371	-0.1925	3.7839	0.0563	0.4167	-0.445	0.6715	4.0416	-0.3406	0.2601	1.6241	3.7062	-0.3997	-0.4664	4.9346	4.4377	0.6781	-0.3675	-0.3592	-0.1937	-0.4753	-0.2934	3.4061	0.685	4.0654	3.9657	-0.0999	4.0199	0.5788	-0.7536	0.0384	-0.5723	-0.4309	-0.411	0.493	-0.0357
S037	0.0507	3.9259	-0.5381	3.9219	4.2127	4.0849	-0.2124	-0.103	4.2474	-0.1232	-0.2919	0.0483	0.5672	0.1757	-0.0849	3.6528	0.2501	-0.6404	-0.4071	-0.6134	0.1923	4.0422	-0.1975	4.5006	0.4337	1.1217	-0.4596	-0.0774	0.5161	4.5146	-0.7799	2.902	0.7829	-0.2346	4.0643	0.0924	0.2254	0.3558	-0.5763	-0.0957	0.4087	1.0798	0.5144	0.728	-0.0246	-0.4371	3.9652	-0.6852	-0.186	-0.4722	-0.2647	4.081	-0.0054	0.6185	0.0026	3.2461	-0.6847	-0.1728	3.9394	4.473	-0.2969	1.276	-0.217	0.5795	0.0626	0.0205	4.1008	-0.4711	4.5988	4.2358	-0.0701	3.4071	0.267	-0.8301	0.6904	0.0817	-0.1157	0.0162	-0.2828	-0.5412
S038	0.557	3.3866	0.0363	3.8583	4.4625	4.3423	0.8114	-0.2591	4.4397	0.0531	0.5961	-0.162	-0.0259	1.0643	-0.1059	3.7162	0.1908	-0.2916	0.2674	-0.1253	-0.4936	4.3725	0.1186	2.9815	0.1639	-0.2817	0.8191	-0.5858	0.0579	4.2505	-0.3208	3.3958	-0.7861	-0.4622	4.0429	1.4293	-0.3219	0.528	-0.0675	0.0391	-0.0004	-0.6466	0.239	-0.7416	0.6879	-0.1534	3.8856	0.8826	0.3545	-0.2112	-0.4792	3.6675	-0.3302	0.3299	-0.2414	3.8193	-0.5907	-0.266	3.8417	4.5331	0.0003	0.4931	-0.1242	-0.5148	-0.1493	0.2328	4.5188	-0.4939	4.2357	3.0319	-0.4518	3.4651	0.3208	0.3078	0.4851	-0.5067	0.3032	0.3023	-0.0801	0.4146
S039	0.8235	3.8395	0.2087	3.8673	4.5891	3.8279	0.0063	-0.5323	3.5553	0.3546	-0.1757	0.1883	0.0559	-0.0734	0.1868	3.9967	-0.248	0.8902	0.497	-0.1429	-0.3505	4.4478	-0.3229	4.005	-0.1521	-0.0716	-0.3524	-0.2479	0.2646	3.6063	0.1727	4.6655	0.1348	0.3885	4.4365	-0.5666	-0.7195	0.1647	-0.299	-0.7036	-0.4711	0.2095	-0.9045	-0.514	0.34	-0.0518	3.4351	-0.0871	1.0044	0.4219	0.4189	3.9338	-0.0423	-0.0817	-0.162	4.272	0.4783	0.1205	5.0264	3.5731	-0.3011	0.1166	-0.5938	0.1071	0.27	0.21	4.1238	-0.5468	3.5486	3.9797	0.8701	3.8511	0.3463	0.4095	-0.7237	0.4983	0.5685	0.339	0.0908	0.4738
S040	0.1195	4.1471	-0.3793	4.053	3.8182	3.6399	0.3605	-0.7092	5.0408	0.4663	-0.5858	0.0471	-0.1226	-0.2709	-0.6307	4.4898	0.2352	-0.0591	0.9261	-0.3181	-0.3097	4.2342	-0.1298	3.7438	0.1059	-0.6657	0.6093	-0.0337	-0.0461	3.7446	0.5074	3.8281	-0.5601	0.3275	4.8101	0.1263	-0.1194	0.2234	0.0272	-0.1369	-0.5095	1.2185	-1.5083	-0.1831	-0.9229	-1.0586	4.2158	0.2216	0.329	-0.4781	-0.4318	3.5959	-0.4052	0.5872	-0.0676	3.9005	0.1342	-0.4666	3.0319	3.9811	0.3527	-0.2097	-0.4352	-0.0472	-0.7136	-0.5046	3.6578	-0.6161	3.3819	3.4287	0.2688	3.7122	-0.1963	0.3578	-0.2724	-0.2758	-0.0947	-0.725	-0.0169	-0.2825
S041	-0.5565	4.1887	-0.7327	2.8727	4.1037	3.49	0.347	0.4657	3.3484	-0.5148	-0.1192	-0.8195	-0.9547	0.1874	0.0803	3.9245	0.4298	-0.1074	0.4173	-0.5145	0.3921	3.9017	-0.0315	4.4285	0.2046	-0.4024	-0.2169	-0.6644	-0.6924	4.3356	-0.302	2.9772	0.5521	-0.3851	3.9548	0.7806	-0.3014	0.2897	0.4107	0.3803	-0.1878	-0.3564	0.893	0.3402	0.0943	-0.6034	4.382	-0.4953	-0.7494	0.7464	-0.0053	3.5676	0.7826	-0.3074	-0.7359	3.5966	0.7969	-0.2808	3.9033	4.0388	0.3251	0.4958	-0.172	-0.0462	-0.1942	-0.17	4.9839	0.7853	3.0761	4.5972	-0.1492	3.8643	0.217	-0.4747	-0.147	-0.2885	-0.3828	0.3548	0.3034	0.68
S042	1.0475	4.6859	1.1689	5.0852	4.3648	3.2495	0.4782	0.1223	4.2946	0.1166	0.4525	0.7305	0.3992	0.0656	0.8155	4.4367	-0.7532	-0.7979	0.0245	0.1477	-0.2235	3.9249	0.2151	3.1508	-1.6399	0.0494	-0.2902	-0.1246	0.1561	4.1347	0.3901	4.58	0.1603	0.1609	3.9697	0.2042	-0.5268	-0.0568	0.0202	-0.4685	0.8027	0.2759	0.5615	0.1673	-0.986	0.3721	3.7655	-0.0655	0.5729	0.0356	-0.7004	4.9963	0.4044	-0.4135	-0.2843	4.2703	0.8093	-0.9903	3.0967	4.003	-0.7264	-0.3462	0.3212	-0.7063	0.4281	0.2239	3.4266	-0.595	3.9039	4.222	0.1357	5.0025	-0.5835	1.2412	0.186	0.0371	-0.8039	-0.6932	1.1777	-0.7965
S043	-0.9494	4.2603	0.0332	4.1381	4.6428	3.668	-0.5274	-0.014	4.09	0.018	-0.3301	0.2313	0.2614	-0.1971	-0.5034	3.4569	0.5182	-0.0591	0.2842	-0.5213	-0.3849	3.3019	-0.7435	4.7859	-0.4544	-0.5479	-0.3093	-0.0817	0.0861	3.6752	0.1114	4.2952	0.6272	0.4801	3.6325	1.0462	-0.0181	1.2677	-0.9464	0.4051	0.0696	-0.5981	0.6193	-0.1342	0.4028	-0.3144	4.6408	1.0991	1.1004	-0.1516	0.5847	4.6433	-0.8339	0.0593	-1.8535	4.7773	0.7501	0.8327	2.5322	3.5291	-1.8793	-0.1041	-0.1552	-0.6249	-0.9758	0.4548	3.9295	-0.1062	4.0159	4.5091	-0.0349	3.264	0.1631	0.2362	0.2228	0.3357	0.1527	-0.4839	0.2153	-0.2161
S044	-0.4023	4.0632	0.647	4.4688	4.3731	3.9026	0.5309	0.0852	5.0198	1.2231	-0.7876	-0.3449	0.787	-0.7567	0.582	4.0749	-0.1211	-1.13	0.7682	0.176	0.0517	4.3164	-0.3344	4.3595	0.4206	0.0223	-0.6686	0.2739	0.5017	3.865	-0.6877	3.3119	-0.7596	-0.1161	4.7395	-0.8347	0.034	0.2601	1.3042	-0.1879	-0.1561	-0.1285	0.7705	-0.5478	0.114	-0.2048	4.3184	-0.3206	0.6539	-1.1036	-0.4726	4.2833	-0.3708	-0.1543	0.0312	4.302	0.258	0.3327	4.6026	4.8336	0.1377	0.7564	0.5511	-0.736	0.0593	0.599	3.8326	-0.2447	4.2459	3.6242	-0.6235	3.8513	0.974	0.4505	-0.2946	-0.1094	0.5839	-0.67	-0.4204	-0.1639
S045	0.0165	4.883	-0.1132	3.6409	5.0548	3.1404	-0.5827	-0.2526	3.6608	0.3079	-0.9634	0.1627	0.4779	1.7137	-0.3462	4.3078	0.5489	-0.253	-0.672	0.0934	0.0992	3.6511	0.1329	4.2544	-0.0103	-0.2771	0.2479	0.025	-0.2453	3.7566	0.3828	3.8579	-0.2486	-0.3283	4.2694	-0.1347	0.0036	0.832	0.2463	-0.0828	0.0893	0.0437	-0.0856	0.1333	0.0585	0.1194	3.7009	-0.7601	-0.2709	-0.169	0.2956	4.0992	0.2216	-0.0861	-0.3253	3.5337	0.4421	0.6603	3.9871	3.8892	0.111	-0.178	1.0233	0.0247	0.6692	-0.1396	4.2683	0.4619	4.7434	3.9469	0.8444	4.539	-0.3566	-0.596	-0.1703	0.4866	1.3731	-0.4588	0.1573	-0.1402
S046	0.4163	4.1893	0.3799	4.0441	3.7182	4.6739	-0.5019	0.7291	3.5016	-0.5565	0.4474	0.1703	1.2792	-0.273	-0.7571	4.3694	0.1954	-0.0605	-0.6691	-0.9277	0.3873	4.5405	0.7135	3.6807	-0.162	-0.291	-0.5023	-0.5788	-0.4003	4.1963	0.4586	3.5741	0.482	-0.3285	3.6686	-0.3947	-0.6915	-0.1131	0.7503	-0.5725	-0.0066	0.1923	0.2469	-0.3488	0.7913	-0.1577	4.319	-0.6184	0.1794	-0.4512	-0.1142	3.537	0.5664	-0.3393	-0.0715	4.1512	0.7304	-0.6905	4.664	3.6559	0.5382	0.8261	0.3006	-0.7759	-0.0554	-0.1766	5.0012	0.325	4.1435	4.1486	0.5551	4.3538	-0.0559	-0.1523	-0.0267	0.3172	-0.4463	-0.6875	-0.6675	-0.0797
S047	0.1428	4.1681	0.5153	3.7489	3.9957	4.4854	-0.0087	-0.5554	4.3167	0.1922	-0.3913	0.609	0.2635	-0.455	-0.606	4.282	0.6781	-0.0032	-0.1216	0.0508	-0.1503	3.9184	0.8497	3.7823	0.0419	-0.3651	0.3594	0.5751	0.1924	4.1188	1.1258	3.9169	-0.9675	-0.8511	4.5571	0.2006	-0.4548	0.017	-0.2669	-0.3005	-0.4124	-0.2349	-0.3593	0.0881	-0.3263	-0.5761	3.2295	0.326	-0.3394	-0.0106	0.1726	4.1719	0.1989	0.6557	-0.8415	4.3326	0.4249	-1.0943	4.2933	3.3302	-0.1929	0.3944	-0.0858	1.1065	-0.0996	-0.2542	4.3508	-1.0318	4.0365	4.2923	0.074	3.8442	1.2517	0.2715	-0.9211	-0.1484	1.1748	-0.8879	-0.7263	0.2514
S048	-0.2162	4.1164	-1.3363	4.1974	3.3047	3.7131	0.0189	0.1051	4.488	0.1136	0.0713	0.0224	0.6591	0.7691	0.2317	3.542	-0.9934	0.1142	0.1593	-0.0921	0.926	3.3688	0.29	4.1226	0.5616	-0.774	1.3798	0.6254	0.5376	2.9535	-0.1676	3.7215	-0.8044	-0.246	4.0391	-1.3313	-0.1289	0.2649	-0.5898	0.3407	0.4705	0.5617	-0.0292	-0.211	0.2607	0.3651	3.739	0.0297	-0.518	-0.0652	0.1354	3.35	0.2748	-0.5533	-0.7449	3.7514	0.9513	-0.5554	3.8616	4.1908	-0.0285	-0.11	0.6424	1.0418	0.6183	-0.0564	4.0961	-0.1069	3.3222	4.2117	0.4186	4.0207	-0.3408	-0.3526	1.005	0.3989	0.4659	0.2522	0.8993	-0.0602
S049	0.0182	3.8909	0.3764	3.793	4.0809	3.6122	-0.556	0.2203	4.3725	0.9009	0.6639	0.7254	-0.1652	-0.4416	-1.0535	4.1838	-0.2708	-0.6608	0.4326	0.2567	0.0532	3.9889	0.5607	3.6545	-0.1852	0.209	-0.5853	0.2186	0.7337	3.0658	0.1525	3.7218	0.2253	0.8272	3.0403	0.1103	-0.2288	0.1007	0.1016	0.0124	1.008	0.0273	-0.1926	-0.6638	-0.8119	-0.2947	3.7253	-0.8504	-0.7623	-0.2935	0.012	3.8457	0.0928	0.178	0.1294	4.309	-0.5077	0.1322	4.3184	3.5207	-0.2752	-0.8741	0.1526	-0.4832	0.3784	-0.0139	3.9979	-0.5017	3.8232	4.422	-0.3023	5.378	0.0575	0.0715	0.816	0.4504	-0.2103	0.3726	0.2202	0.4197
S050	-0.5148	4.3039	0.1353	4.7009	4.7438	4.2206	-0.3552	-0.2845	3.468	0.1492	-0.4144	0.1019	-0.2628	-0.2833	0.4633	5.2413	-0.7681	0.5483	-0.1382	0.2061	0.1673	2.9886	0.8907	4.2127	0.4139	-0.2273	0.263	0.1424	-0.0451	4.1887	-0.0568	4.0771	-0.0689	0.3649	4.2752	0.2822	0.2719	0.2469	1.2498	-0.2387	0.0741	-0.5955	-0.4478	-0.188	-0.0161	-0.1556	4.2257	0.151	0.2794	0.0659	-0.1137	3.1739	-0.4336	1.0377	0.8244	4.2608	-0.1201	-0.2354	4.4355	3.9433	0.1119	0.6709	0.2122	-0.1472	-0.3709	-0.5384	4.1304	0.3039	4.7322	3.8539	0.135	4.0958	-0.0577	0.2876	-0.004	0.7223	0.039	-0.2596	-0.2566	-1.5112
S051	-0.5594	4.5127	0.4575	4.9809	4.5447	3.4399	-0.1168	-0.2425	4.3391	0.6619	0.2498	0.229	0.3016	1.2664	-0.1301	4.4676	-1.2565	0.394	0.1929	0.7402	-0.4205	4.8959	0.4789	4.1719	-0.7286	0.1396	0.0864	0.4143	-1.0873	4.4841	-0.4032	3.5885	0.1385	-0.0668	3.4817	0.7546	-0.607	-0.3517	-0.0598	0.318	-0.499	-0.1722	-0.3175	-1.3418	0.2747	-0.5527	4.4215	0.7901	0.4927	-0.5354	0.1567	5.1429	-0.2368	-0.2099	0.1632	3.8835	0.0121	-0.5549	4.1089	4.3231	0.8746	0.4933	0.2933	-0.0022	0.5715	-0.2061	4.2579	0.2028	3.4746	3.2174	0.5678	4.5882	0.9042	0.1172	0.3722	0.4032	-0.5112	-0.2125	0.1344	-0.3049
S052	-0.1864	5.249	-0.9032	3.9542	4.3079	3.9485	-0.004	-0.0985	5.034	0.2196	-0.4633	0.2181	0.2863	0.0829	0.2526	3.8456	-0.5806	1.0814	0.9592	-0.3162	0.6517	4.6013	0.578	3.7969	0.1287	-0.6261	-0.2504	-0.1617	-0.2653	3.9943	0.5174	4.0178	-0.5189	0.0359	4.765	0.022	-0.6548	0.2468	-0.0654	-1.2861	-0.3914	-0.1258	0.7222	0.4043	-0.267	-0.3737	4.2784	0.5513	-0.1338	-0.2649	0.0716	4.0104	-0.5428	0.3479	-0.135	3.6943	0.0308	-0.1603	3.512	4.2153	-0.37	-0.3014	-0.2926	-0.4184	0.3071	-0.5019	3.5843	-0.0734	3.4555	2.8089	-0.8924	4.316	-0.2192	-0.0824	-0.5709	-0.2848	-0.0457	-0.1457	-0.3743	-0.6004
S053	0.1625	3.9373	-0.9159	3.7924	4.5237	4.259	0.2834	-0.3598	4.2255	0.2263	-0.9682	0.6036	0.3087	-0.2927	0.7512	3.3082	-0.8123	0.1966	-0.6754	-0.1678	0.1988	3.844	1.3844	4.6332	-0.6051	-0.5881	-1.1249	0.9853	0.164	4.6178	-0.9996	4.5237	-0.1838	-0.4058	3.3051	-0.2009	0.8141	0.0873	0.02	0.3589	0.0754	-0.1597	-0.7402	-0.3053	0.0433	-0.375	3.5199	-0.1327	-0.016	0.1487	-0.6787	3.9138	-0.714	-0.283	0.5132	3.7157	-0.0787	-0.2643	3.3993	3.6773	0.1447	-0.965	0.2029	-1.2674	0.3821	0.1086	3.9261	-0.1949	4.7106	3.5059	0.3847	3.8545	0.1228	0.2435	-0.3416	-0.8507	0.2595	0.1184	-0.079	1.0176
S054	-0.1069	3.9584	0.5738	4.1219	4.7889	3.7537	-0.5456	0.186	3.935	-0.33	-0.7103	0.5269	0.5667	-0.0093	-0.7421	3.8655	-0.1557	0.0459	0.8242	0.4487	-0.3889	3.7603	0.1916	3.5544	0.1124	-0.153	-0.0114	-0.7803	0.0802	3.5327	-0.0747	3.5531	-0.6178	1.6328	4.208	0.1011	-0.6644	0.165	-0.1022	0.9474	-0.3481	0.5497	-0.8549	-0.5632	-0.0463	0.6213	4.3413	-0.202	0.8375	0.5388	-0.6553	3.9504	-0.6876	-0.9276	-0.4916	4.4038	0.6067	0.0387	3.8934	4.4343	-0.004	0.2655	0.3462	0.2041	0.5571	0.3946	3.9756	-0.3354	4.1374	3.5955	-0.5946	4.5129	0.1993	0.1496	0.0915	0.2536	-0.1929	-0.8562	0.6903	0.4103
S055	-0.4869	4.8575	0.4997	5.1601	4.5935	3.8971	0.2778	0.7012	4.2083	-0.3916	0.1518	-0.9606	0.0808	0.1336	1.3396	3.4887	-0.1591	0.5913	-0.4304	0.1138	-0.7014	4.0684	1.332	3.5302	-0.6441	-0.4558	-0.1371	0.2553	-0.8637	3.7257	-0.4225	3.6848	0.5883	0.1782	4.3997	-0.7242	0.2778	0.3473	-0.2976	-0.0092	0.0604	0.9389	0.882	0.168	-0.2719	-0.341	4.359	0.3552	-0.9913	-0.4166	-0.1928	3.5571	0.3389	-0.2582	0.284	4.3168	-0.0891	-0.1377	4.1095	3.865	-0.4271	-0.296	0.7613	0.1374	0.1898	0.1005	4.0779	0.2893	3.0498	4.0088	0.1214	4.3347	1.2125	0.6774	-0.4045	0.7336	-0.0783	0.1273	0.5072	0.1379
S056	-0.2705	2.9748	-0.1395	4.4192	2.8499	4.1196	0.9878	-0.3468	4.0414	0.2365	-0.4429	-0.3009	0.1462	0.406	0.5667	3.9087	0.9982	-0.2904	0.3639	-0.1708	-0.3836	3.8412	0.6382	3.993	0.3748	-0.6661	-0.324	-0.545	0.6405	3.0406	0.5764	4.2517	0.0835	0.0791	3.2107	-0.6134	0.5632	1.1505	0.7591	-0.3178	-0.1142	0.2154	-0.6731	-0.0229	0.4781	-0.2906	4.0392	0.8487	0.0806	0.4814	-0.2632	4.0167	-0.1694	0.0783	-0.4047	3.2482	-0.6648	0.2666	4.5153	4.0862	-0.2308	0.4961	0.4488	0.4135	-0.0783	-0.2064	4.1496	-0.4493	4.0342	3.1051	-0.5709	4.5087	-0.3502	-0.1466	0.1298	-0.4413	0.4658	-0.0053	-0.062	-0.6836
S057	-0.284	4.2982	-0.6731	3.7365	3.1528	3.4635	-0.107	-0.0031	3.8134	-0.0517	-0.2335	0.4727	0.605	0.5252	-0.5282	3.3916	-0.1531	-0.0582	0.2774	-0.3794	-0.3135	3.2271	-0.4242	3.9792	-0.0383	-0.5567	0.0962	0.1868	-1.0595	4.6011	0.7262	3.8218	-0.611	0.5571	3.6872	-0.2624	-0.0226	0.8748	-0.7274	-0.6936	-0.035	0.0784	-0.3792	0.3671	-1.4273	-0.1824	3.5838	0.0379	0.079	-0.5393	-0.7708	4.8542	-0.2012	0.3642	0.6974	3.2384	-0.4738	0.348	4.8937	3.1477	0.1628	0.4765	0.6857	0.5279	0.4099	-0.2837	3.2505	-0.3281	3.5374	3.0645	-0.4892	3.2658	-0.755	-0.1547	-0.0707	0.4538	-1.3004	-0.0631	-1.0	0.4879
S058	0.7747	4.3588	1.0547	4.7886	3.6422	3.8086	-0.391	0.237	4.2107	-0.4071	-0.4433	0.5864	0.0421	-0.415	0.0073	3.6562	0.0187	-1.1024	0.1563	-0.4243	0.7202	3.0511	-0.1922	3.9979	-0.5961	-0.3496	-0.1567	0.137	-0.3755	4.2704	-0.231	5.0119	-0.2636	-0.3302	3.6361	0.998	0.6763	-0.0663	0.0317	0.4109	-0.4088	-0.2562	-0.7332	0.0704	-0.6342	-0.0336	4.5612	0.473	-0.2525	-0.3249	0.3232	4.6379	-0.6528	-0.4735	0.2122	4.0939	-1.1765	0.0332	3.2031	3.1418	0.3049	-0.264	-0.118	0.5004	-0.5349	0.1663	3.6747	0.6164	3.6653	4.3908	-0.3617	4.0518	0.3634	-0.5109	0.7354	0.2592	-0.1046	-0.0225	0.2758	1.2855
S059	0.4684	4.3664	0.1648	4.1189	3.8907	4.3222	-0.3707	0.0823	2.9516	-1.1878	-0.2965	-0.2926	-0.9498	-0.826	0.0977	3.832	0.1997	-1.1068	0.579	0.5105	0.3861	4.6672	-1.4259	4.3745	-0.5267	0.9488	0.3692	0.2235	0.0853	4.2562	-0.7912	4.2892	-0.0417	0.04	4.7141	0.4051	-0.4092	0.5696	-0.5341	0.1517	-0.076	0.284	-0.6031	0.3366	-0.5232	0.5589	3.573	0.086	0.1318	-0.1108	0.3269	3.2397	-0.5795	-0.1865	-0.4133	3.5225	0.7251	-0.5414	3.748	3.9641	-0.2114	-1.3233	-0.3497	0.4527	-0.2327	-0.1764	3.7132	0.7058	4.6401	4.4882	-0.1079	3.8234	-0.8837	-0.1789	-0.109	0.3666	-0.3596	0.3196	0.226	0.0473
S060	-0.4904	0.2259	4.2161	0.1565	0.4463	1.1928	3.1403	0.7482	1.0747	0.1628	0.5613	3.8999	3.9548	3.7574	4.5328	-0.4165	1.0094	-0.2571	0.03	0.1849	-0.628	4.1798	0.3401	-0.4114	3.8755	3.7074	-0.085	-0.581	0.7947	0.4533	4.1067	3.7812	0.4697	-0.2695	0.0226	-0.0988	0.9192	-0.4146	0.1318	-1.0552	-0.461	-0.4211	0.1302	0.592	1.3275	4.0007	3.1365	3.3801	0.1286	0.0764	-0.6362	3.9763	1.7196	0.3312	0.8563	0.5714	0.3236	0.5827	0.7424	-0.1294	0.0068	0.5701	-0.8204	0.3167	2.6169	4.2694	-0.7032	-0.471	-0.4804	-0.2821	4.1134	0.7857	3.6671	0.8493	-0.4082	-0.011	-0.153	0.3035	4.3065	-0.4681
S061	-0.5652	0.1833	4.0834	0.155	0.9443	-0.6347	4.798	-0.3566	0.1683	0.2496	-0.3799	3.8355	4.3109	4.3226	4.5955	-0.4142	-0.8187	-0.3027	0.1984	-0.3172	0.4229	3.9096	-0.7208	0.4855	3.7324	3.8344	0.0408	0.0922	0.4827	-0.6953	3.5712	4.4183	0.4541	-0.1526	-0.3879	0.0628	0.5635	0.4244	-0.1373	0.1017	-0.1522	0.7323	0.2433	1.043	-0.0025	3.0711	3.3595	4.5733	-0.2717	-0.5324	-0.1473	3.9353	-0.6563	-0.223	-0.9582	0.5123	-0.3071	0.0473	-0.1633	0.4834	-0.8209	0.1883	-0.5224	-0.5896	3.4754	4.5074	0.2351	0.234	0.6438	-0.0095	2.8809	-0.0158	3.8255	-0.0877	-0.0013	-0.3674	-0.0555	-0.4723	4.3086	0.1343
S062	0.2426	-0.0573	4.7628	1.118	-0.1551	0.1563	3.9115	-0.406	-0.6446	-0.522	0.0739	3.2926	3.4218	4.1806	3.8776	0.3043	-0.4432	0.4256	0.1477	-0.2405	-0.6178	4.8947	-0.0084	-0.2432	3.8332	3.6528	-0.7305	-0.4526	0.3403	0.2091	3.6832	3.4603	0.573	0.1732	-0.7313	-0.2368	0.284	-0.0081	0.2676	0.0257	-0.4418	0.4791	0.2738	-0.5467	0.5363	4.0539	4.1863	4.149	-0.9289	-0.6042	-0.3571	3.0875	0.3123	0.4751	-0.1952	0.6783	0.6878	0.3542	-0.9186	-0.3423	0.5796	0.0177	-0.2131	1.0769	4.7079	3.7674	0.1565	-0.126	-0.4006	-0.8935	4.2349	0.3834	3.8624	-0.2516	0.4581	-0.4285	-0.0932	0.2435	3.7579	-0.1442
S063	0.2926	0.7466	4.4572	-0.0962	0.7069	-0.4107	3.6697	-0.5063	-0.2617	-0.4079	-0.1562	4.1787	3.9099	4.7401	4.2505	-0.129	-0.2723	-0.7354	-0.1868	0.3768	-0.7191	4.5511	-0.3688	0.2155	4.4668	4.2133	-0.1336	-0.326	-0.6641	-0.0895	4.3672	3.2215	-0.7096	0.4041	0.4588	-0.2391	-0.2721	0.3067	-0.3552	0.8125	0.0401	0.2254	0.0836	-0.2818	0.4974	4.2188	4.1352	3.624	-0.5461	0.191	-0.4028	4.228	0.4211	-0.4199	0.1379	-0.9262	-0.1245	-0.7924	-0.2087	-0.2453	-0.1592	0.3871	0.0956	0.6691	4.0424	4.4743	-0.0724	0.1998	1.2302	0.0213	4.354	-0.0871	4.4743	-0.3833	-1.1213	0.4077	-0.7618	0.4927	4.104	-0.2298
S064	0.5487	-0.1179	3.9137	0.0981	-0.4042	-0.2851	3.9713	0.0114	1.1515	-0.4464	0.1638	3.6341	4.2498	4.1161	3.795	0.643	0.0817	0.7298	0.2593	-0.2229	0.1744	3.76	-0.7011	0.137	3.9341	4.6212	0.3614	1.0283	0.0188	0.135	4.053	3.544	0.0637	-0.2919	-1.1002	0.3195	0.9164	-0.0088	-1.233	-0.1785	0.1769	0.304	-0.5761	-0.6578	0.2481	5.0515	3.5183	4.0206	-0.2807	-0.4433	0.1345	4.1901	0.5539	-0.2401	0.6433	1.0913	0.1547	0.2714	0.0571	-0.4514	-0.1096	0.0922	-0.0643	0.0093	3.6585	3.6867	-0.0729	0.6652	-0.5486	0.5977	4.6908	-0.3133	3.4731	-0.1735	0.495	0.5176	-0.1368	-0.5469	4.0358	-1.2881
S065	-0.0693	-0.179	4.4647	-0.3278	0.0684	0.1007	3.4331	0.5099	0.7944	-0.8113	0.11	3.332	4.2651	3.2815	4.4549	0.6783	0.2088	-0.4115	0.3583	-0.363	-0.3989	3.3402	-0.4388	-0.8138	2.3398	3.2995	0.0535	-0.5296	-1.1425	-0.0911	2.9242	4.1746	-0.3596	0.1525	-0.0947	0.2134	0.3765	0.4787	-1.0306	-0.0646	0.1403	0.4432	0.1083	0.258	-0.0023	3.7167	3.3345	3.6851	0.4344	-0.0074	0.5256	4.0068	0.4687	0.0128	-0.33	0.4141	-0.0337	-0.4695	0.1613	-0.7573	-0.7486	-0.0965	0.1224	0.3962	5.0063	2.9552	-0.6762	-0.8106	0.8351	-0.7767	4.6909	1.0393	3.8549	0.3849	-0.118	-0.2527	0.4969	0.8249	4.2064	-0.6241
S066	-0.0636	0.4852	3.9956	-0.5279	-0.3495	-0.597	4.1304	0.2753	0.9895	-0.2489	0.4448	4.1082	4.0261	3.5123	4.4882	-0.3057	0.0814	-0.7779	0.878	0.2102	0.769	4.1985	-0.8313	-0.2329	4.1375	4.1177	0.7328	0.1309	0.1159	0.9456	4.1157	3.8728	-0.445	-0.6984	-0.5102	-0.5026	-0.3965	-0.1501	0.0567	0.501	0.3069	1.0353	-0.2076	-0.7855	0.0512	4.2659	3.5503	3.4004	0.4824	0.5924	0.0261	4.7883	0.2115	-0.13	0.032	0.5388	-0.291	-0.1371	-0.526	0.1335	-0.1772	0.437	-0.5595	0.381	4.5859	4.0002	-0.0721	-0.007	-0.6116	0.0443	4.8315	-0.039	3.9463	0.6118	0.56	-0.0343	-0.5697	0.0526	4.3187	-0.5446
S067	-0.9305	0.1476	4.0153	-0.5402	0.5813	-0.2325	4.2846	-0.2877	-0.2089	0.1647	-0.3217	3.6648	3.4215	4.0473	4.4185	0.4782	-0.154	0.5791	0.2451	0.7932	0.2632	5.2901	0.0597	0.4379	3.6959	4.4243	-0.2824	-0.0227	-0.195	-0.2	3.7585	4.7414	0.3723	0.7872	0.2528	1.2867	0.0396	-0.5434	-0.899	0.3528	0.0837	0.2696	-0.4524	-0.2583	-0.2274	4.5179	3.8989	4.6644	1.1656	0.9372	-0.3721	4.6141	0.3847	0.6493	0.409	-0.1751	-0.0942	0.2077	-0.7046	-1.0559	-0.1007	0.4526	0.106	0.2054	4.921	4.7986	0.2035	-0.2832	-0.0105	0.1584	3.8084	0.0512	3.6039	-0.0297	-0.4997	0.2589	0.4818	-0.1913	3.6626	-0.3066
S068	0.6953	0.5922	5.0057	-0.0338	0.0541	-0.2882	3.0449	-0.1448	-0.466	-0.5034	0.4534	3.9591	4.4801	3.4906	4.8523	0.7351	-0.3965	-0.9766	0.068	-0.1805	-0.9462	3.2642	0.2651	-0.2259	4.0317	4.3043	0.2264	0.5307	-0.3085	0.8929	3.9321	4.7105	-0.521	-0.0385	-0.2878	0.5025	0.1511	0.4385	0.2071	-0.2458	0.1733	0.7812	0.5904	0.1325	0.0769	4.0128	3.6916	3.6608	-0.4086	-0.7628	0.6453	2.8425	-0.2315	0.3336	0.0248	0.3171	0.9351	0.0699	-0.6202	-0.2793	-0.1674	-0.6369	0.2562	0.1223	3.4058	4.119	-0.2883	0.4754	-0.3889	0.4912	4.7366	-0.6012	4.1333	-0.2488	0.3335	-0.2993	0.476	-0.0422	3.4823	-0.7734
S069	0.4334	-0.5176	5.0332	0.3184	0.1768	-0.2573	4.3593	-1.8922	-0.3222	-0.444	0.5302	3.0157	4.1389	4.1982	4.3581	0.2338	-0.2712	-0.2465	-0.0506	-1.0823	0.9917	3.6993	0.3775	0.4327	4.205	3.6057	0.5223	0.0883	0.731	-0.5498	3.2216	3.8733	-0.3408	-0.2222	-0.341	-0.1332	0.661	-0.2726	0.7017	0.6317	-0.0562	0.8712	0.1232	0.7834	-0.578	3.8208	4.2729	3.8469	0.449	0.1917	-0.5403	4.8381	-0.097	-0.4182	-0.129	-0.3072	-0.0289	-0.2107	0.8179	0.3613	-1.5243	0.7833	0.2608	1.0411	4.8285	3.658	-0.571	0.3181	0.1336	-0.4235	4.4913	0.2705	4.5133	-1.0492	0.4768	0.0996	-0.2695	0.1453	4.6026	0.3625
S070	-0.0649	-0.1199	4.1064	0.5968	-0.4145	-0.1658	4.1496	-0.3471	-0.4526	-0.7659	0.4123	3.8724	3.6876	3.4068	4.347	-0.4407	-0.1091	0.4845	0.4257	0.6323	-0.0386	3.9529	-0.0512	-0.6448	4.6736	3.4098	-0.314	0.9487	-0.0001	0.916	4.1812	4.1787	0.4596	-0.4352	-0.0035	-0.3857	-0.0636	0.4206	-0.6476	-0.9568	-0.2318	-0.4457	0.1178	0.0906	0.3725	4.259	4.281	3.6436	0.5767	-0.7299	0.6953	4.6176	0.4833	0.3044	1.1033	0.4032	0.2413	0.2587	0.1847	-1.2633	0.0084	-0.4433	0.1428	0.1712	4.1923	4.15	-0.2161	-0.3442	0.8675	-0.3123	3.7073	-0.3862	4.2701	-0.5568	-0.3874	0.3718	-0.1439	-0.2545	3.5688	0.6444
S071	-0.6213	-0.6273	3.7746	0.6098	-0.0516	0.0572	3.3196	0.0143	-0.2936	0.04	-0.572	3.3573	3.4466	3.6548	3.7666	-0.0948	0.0389	-0.0129	0.1003	-0.2169	0.9732	4.1466	0.38	-0.4533	3.8871	4.7136	0.0571	0.0823	-0.1993	0.2687	4.5086	3.4635	0.6085	-0.0006	-0.0903	-0.0832	0.5111	1.1102	0.6032	0.1778	-0.6506	0.361	0.539	0.612	0.9652	3.1364	3.3231	3.9146	0.0944	0.0807	0.1879	4.1574	-0.1817	-0.398	-0.3841	0.3221	-0.8224	0.6144	-0.4671	1.1908	-0.104	0.6025	-0.3387	0.1126	4.2131	3.7179	-0.2721	0.3406	0.0207	0.9355	4.3462	1.2764	4.7231	0.5787	0.4105	-0.6999	-0.3554	0.3577	3.7197	-0.0894
S072	0.5413	0.3779	3.3877	-0.6374	0.12	-0.496	3.7217	0.1579	0.0776	-0.9703	-0.1883	3.8167	4.2396	2.9878	3.034	-0.7632	0.0297	-0.5736	-0.6625	0.2863	-0.0746	3.2947	-0.4387	0.3061	4.1442	3.5698	-0.6421	-0.1691	0.6112	-0.4481	4.3088	4.3533	0.5254	-0.5359	-0.8204	0.2636	0.1776	-0.3432	-0.1897	0.2744	0.214	0.0673	0.2289	-0.0521	0.5955	3.9994	3.9521	3.4901	0.6754	0.3438	0.0085	3.7497	0.264	-0.4368	0.4433	0.5766	-0.0774	0.6468	0.3372	-0.5921	-0.0606	0.629	0.364	0.3093	4.4568	3.6371	-0.2526	0.014	-0.0857	-0.0289	3.03	0.1758	4.2558	0.5829	0.8045	0.0265	0.2717	0.1517	4.1551	0.0986
S073	0.6438	0.238	3.6534	-0.4215	0.5266	-0.3518	3.6245	0.3497	-0.5861	0.1264	0.8037	3.8698	3.7278	4.4918	4.3837	0.2837	0.3419	0.4075	0.2599	0.4762	0.1039	3.2165	0.2288	-0.0519	3.9276	2.8801	-0.6131	-0.8549	0.5373	0.0659	4.079	4.5705	-0.7694	-0.942	0.7047	0.9332	0.2234	-0.0651	-0.5334	-0.5411	-0.0494	0.8236	0.1276	0.954	-0.2203	4.0743	4.243	4.1627	-0.0463	-0.1839	-0.1674	3.9661	0.3963	-0.4443	-0.6435	1.0088	0.0168	0.5652	-0.4075	0.0195	-0.1644	-0.1909	-0.4661	-0.9199	3.2073	3.3534	0.2733	0.1281	-0.4454	-0.2916	3.7658	-0.0917	3.6893	0.1688	0.281	-0.3829	-0.575	-0.2323	4.3222	0.61
S074	-0.4068	0.3232	4.1258	-0.0599	0.3911	0.6173	3.2126	-0.391	-0.1186	0.0332	0.207	4.1112	3.9241	4.5884	4.4492	0.1523	-0.3432	-0.0966	0.8869	-0.0888	0.7858	4.3802	0.5987	0.2589	4.1218	3.1599	-0.0874	-0.0867	-0.296	-0.0145	3.6219	4.831	1.1744	-0.1617	0.1509	1.0593	0.2828	-0.3971	-0.1144	-0.5427	0.6331	0.2236	0.1059	0.3518	-0.6436	3.4438	4.3276	3.8707	0.4718	0.2108	0.1121	4.4765	0.5706	-0.2009	-0.0443	0.7413	-0.1386	-0.1297	-0.8293	-0.6595	-0.1992	0.2801	-1.0615	-0.5409	4.2475	3.824	-0.4393	-0.4034	0.2595	-0.2266	3.406	-0.4278	3.3415	0.5231	-0.3645	0.3178	-0.0378	-0.6769	4.0689	0.3173
S075	0.1748	0.3944	4.3227	0.246	-0.1418	0.4111	3.8349	0.2246	0.013	-0.1618	0.0264	4.0472	4.1309	3.7866	3.4573	-0.1402	-1.2542	0.1517	0.5071	0.3567	0.2326	3.3878	-0.1504	-0.3743	3.9738	4.1908	0.1913	1.3377	-0.227	-0.6359	3.9697	4.5944	-0.3799	0.6398	0.7194	-0.3362	-0.5479	-0.0668	-0.1136	0.8048	0.3691	-0.3498	-0.2039	-0.0327	-0.2675	4.1981	4.6149	3.9891	-0.1151	0.4073	-0.2899	4.9922	-0.0839	-0.8595	-0.2253	-0.0705	0.0742	0.4728	0.7726	0.8123	-0.5475	-0.0006	-0.6349	0.7191	3.8769	3.513	-0.1791	-0.1967	0.0593	0.1196	3.6786	0.1367	4.518	0.327	0.0885	0.4138	-0.1417	-0.1859	4.405	-0.249
S076	-0.3762	1.1798	4.0667	0.8093	-0.1448	0.3802	4.4905	-1.0174	0.6581	0.0851	0.183	3.7776	4.0848	3.7927	3.5022	-0.2581	0.2291	0.3041	-0.1386	-0.2498	0.6562	4.6803	0.2683	-0.0425	4.1423	3.998	-0.2906	-0.0682	-0.5267	0.222	3.3182	3.9235	0.8806	-0.3634	0.6157	-0.7412	0.2422	-0.6793	-0.5252	-0.4614	0.4639	0.0792	0.4305	0.3116	0.3587	3.9777	4.3483	4.4868	-0.2528	0.078	-0.0962	4.0848	-0.3476	0.4511	0.8066	-0.2858	-0.2323	-1.0585	-0.146	0.2034	0.3142	-0.3522	-0.6081	0.32	4.2567	4.0805	-0.3427	0.2834	1.1318	-0.4037	3.2935	0.179	4.0886	-0.3495	0.2377	-0.9576	0.1038	-0.6444	4.0721	1.4815
S077	-0.5412	0.0045	3.5689	0.1747	-0.0959	0.9909	3.4932	-0.6298	-0.4597	0.2618	0.5016	3.737	4.1548	4.09	3.7654	0.3276	-0.4948	-0.164	-0.6901	-0.2152	-0.7638	4.0792	0.4971	0.8592	4.2637	3.4108	0.1266	0.6585	-0.5414	1.0139	4.2193	3.7612	-0.4466	0.1974	0.1532	-0.4313	0.7193	0.3965	-0.4971	-0.2447	-0.7454	0.1802	-0.3686	-0.5331	-0.3003	4.0025	4.2491	4.4944	0.1011	-0.2284	-0.3243	4.5613	0.1127	0.8702	0.8763	-0.6012	-0.532	0.1712	-0.0981	-0.2899	0.2866	0.3318	0.5205	0.1093	4.1426	4.3158	0.2495	0.216	0.0382	-0.1199	3.3362	-0.622	3.7262	0.5005	-0.19	-0.6532	1.1989	0.0514	3.7586	0.3227
S078	0.2341	-0.1097	3.9867	-0.0436	-0.126	0.5336	4.1932	-1.0855	0.7359	0.7712	0.3323	3.9093	4.5018	4.2556	3.9008	0.365	-0.2199	-0.3347	0.4764	0.6664	0.8425	3.2426	0.8849	0.0875	3.0681	3.544	-0.0705	0.3831	0.4191	0.2388	3.8356	4.1168	-0.2284	0.2102	-0.0076	0.3944	-1.5147	-0.2599	-0.4744	-0.9885	0.2024	0.0807	-0.3362	0.9313	-0.1883	3.3476	4.67	4.2886	0.425	-0.0251	-0.0442	3.8429	-0.554	0.1161	-0.0975	0.5812	-0.1355	0.1458	0.5955	-0.2902	0.3283	0.5425	-0.1878	0.9236	3.4612	4.0744	0.4134	0.1409	-0.922	-0.3071	3.7528	0.9436	4.7195	0.6197	-0.6239	0.3153	-0.6167	-1.0869	3.7606	-0.1981
S079	0.0837	0.8388	3.4299	-0.5001	0.1383	-0.568	4.7925	1.0318	0.4134	-0.3546	0.4779	4.4959	4.2813	4.1449	3.4374	0.2285	0.4231	-0.3424	-0.5354	-0.7444	-0.6304	3.8498	-0.2906	0.1133	4.7242	4.6015	-0.311	0.2844	-0.2228	-0.257	4.225	4.2709	-0.0546	0.5333	1.4289	0.0505	-0.6623	-0.5457	0.0067	0.0837	0.374	0.0244	0.8295	-0.3265	0.4401	4.3882	3.7957	3.9597	0.3439	-0.2772	-0.0416	3.6164	0.5334	1.0328	0.5036	-0.2501	-0.1664	0.15	-0.9542	-0.2039	-1.4895	-0.2807	0.5949	0.1701	3.1561	3.4907	0.6087	-0.5	-0.7126	1.1218	3.7161	0.076	4.3763	0.4253	-0.7261	-0.1689	0.5289	0.7527	3.8174	0.229
S080	0.1338	0.4095	3.8909	0.1009	0.1988	-0.2657	3.7988	0.265	-0.4131	0.4348	-0.0615	3.4043	4.1369	4.1847	3.8498	-0.3896	-0.9895	-0.2494	0.7025	-0.2422	-0.1785	4.0473	0.2778	0.5293	4.5698	4.3591	-0.0391	-0.0634	0.213	-0.3091	3.0946	3.3724	0.0956	0.2188	-0.3492	-0.1191	0.2992	0.2439	0.0632	-0.5285	0.0658	0.0775	-0.0619	0.607	0.1219	3.7625	5.2628	3.9286	-0.3548	-0.0993	0.8295	4.2332	0.9027	0.4137	0.8698	-0.165	-0.205	-0.1997	-0.0264	-0.1092	0.5493	0.3744	-0.6826	0.0332	4.9283	3.8994	0.4275	0.3091	0.5227	0.4467	3.0759	0.4579	3.3848	-0.5922	-0.4992	-0.4082	0.1141	0.0576	3.6497	-0.0988
S081	0.3146	0.4916	3.8549	0.4969	-0.8673	1.8969	3.5894	0.6704	0.8975	0.3022	0.2487	4.2263	3.8913	5.4104	3.1874	0.065	0.1425	-0.7607	0.5811	-0.2229	-0.4299	3.6656	-0.5111	-0.1849	4.2553	3.128	0.7429	-0.1438	0.2106	0.2728	3.6446	3.4394	-0.7215	-0.2744	-0.0084	-0.5283	-0.3548	-0.0876	-0.1546	0.5355	0.631	0.263	-0.2314	0.3638	-0.5516	4.0329	3.2021	3.6	0.2568	-0.9035	-0.1362	3.5537	-0.1933	0.6622	0.4508	-0.1373	0.0528	0.194	-0.3087	-0.5835	0.2255	-0.2942	-0.2478	-0.4751	4.2415	3.5482	0.3698	0.7367	-0.8827	0.2117	3.1127	0.5814	4.3453	0.2708	-1.6659	-0.0696	0.1381	0.4834	3.8313	-0.0474
S082	-0.0999	-0.4327	4.0043	0.2909	-0.027	1.0629	4.8019	0.6009	0.2449	-0.776	-0.3198	3.7639	4.108	3.617	3.6813	-0.0667	-1.0584	0.6073	-0.1063	1.0147	-0.4635	3.2867	0.6376	1.7693	4.2947	4.1041	0.1943	-0.3528	-0.4901	0.384	3.1814	4.025	-0.11	-0.2709	-0.2392	-0.1853	-0.1626	-0.4936	0.6224	-0.7471	1.0928	-0.2464	-0.0036	-0.8637	-1.4312	4.8519	4.365	4.7065	0.1183	0.8689	-0.0244	4.4721	-0.121	0.758	-0.0645	0.3278	-0.5412	-0.1891	0.5433	-0.5492	-0.3122	0.2386	-0.1687	0.2844	4.4956	3.6755	-0.3437	0.3389	0.3552	-0.2397	3.8308	-0.4685	4.138	0.4548	0.253	0.4855	0.281	0.4158	3.4711	-0.2063
S083	-0.8062	-1.4928	3.4588	0.8247	0.6232	0.4371	4.3429	0.5367	1.9547	0.5482	0.5275	4.1515	4.4137	4.2167	3.0906	-0.025	0.4278	-0.0603	0.4838	0.2118	-0.574	3.8793	-0.3805	0.5533	4.277	4.6099	-0.8501	0.4109	0.6286	0.207	3.8528	3.665	0.077	-0.3543	-0.2422	0.0296	-0.1408	0.476	-0.6241	-0.6088	-0.9078	-0.5626	-0.4759	-0.4682	-0.3376	4.7022	4.2058	3.6662	-0.3713	-0.3231	-0.0867	4.1564	0.244	-0.4033	0.3345	0.3489	-0.2848	-0.8364	0.3837	0.0613	-0.6995	-0.4036	0.471	0.1329	4.5058	4.0184	0.6685	0.2171	-0.5991	-0.4602	2.9258	0.0514	3.8669	-1.0087	0.8975	-0.1316	0.0992	0.0718	4.393	-0.3678
S084	0.1607	-0.3308	3.4096	-0.039	-0.1403	-0.2132	3.6392	0.0584	-0.088	-0.4461	-0.0209	4.0074	4.1876	4.4391	3.5685	-0.4587	-0.3269	0.1994	-0.1524	-0.4509	-0.1077	3.7285	0.0965	-0.0457	4.4966	4.126	-0.3933	-0.0305	0.4725	-0.4288	4.0973	4.2048	-0.4123	-0.2519	-0.4858	-0.2875	0.2893	-0.1401	-0.0089	1.1382	-0.798	-0.114	0.6739	-0.0481	-0.0172	4.0748	3.6735	3.9802	0.4303	-0.9967	-0.3124	3.8705	-0.7689	-0.9226	0.666	-0.3821	0.4606	0.2182	-0.7211	0.0007	-0.5529	0.5148	-0.2521	0.1035	3.6111	3.9261	0.6778	0.1876	0.6074	0.1147	4.2021	0.1643	3.9186	-0.4037	-1.0967	0.0448	-0.6393	-0.2151	4.0855	0.6201
S085	-0.2767	0.2321	4.1155	-0.6931	0.1577	0.0786	4.3553	-0.4928	0.3361	-0.266	0.1643	4.0581	4.3853	4.1798	4.0817	0.5716	-0.2225	-0.9198	-0.372	-0.1867	-0.7561	4.5515	0.0652	0.4386	3.9095	3.9012	0.4131	-0.5269	0.7537	-0.1625	4.1698	4.6332	-1.1163	0.0162	0.2297	-0.3015	-0.1777	-0.0995	-1.4557	0.2795	0.3025	-0.8109	0.6553	-1.1191	0.4516	3.3625	3.6779	3.9164	0.0597	-0.0552	-0.2179	3.4073	-0.476	0.2279	0.4074	-0.5157	-0.5494	0.8042	0.3074	0.9158	0.3291	-0.6566	-0.0244	0.3854	4.3353	3.8122	0.0006	0.1112	0.355	-0.6431	3.334	0.7724	5.0146	-0.1228	0.401	1.1817	-0.2833	-0.5609	4.2884	0.1051
S086	-0.2165	-0.2079	4.1679	-0.6371	0.2263	0.2558	4.2025	-0.1788	0.0963	0.8099	-0.5093	5.203	4.2883	3.9712	3.7314	-0.3783	0.5714	0.4118	0.0039	-0.6584	-0.3447	4.3821	-0.7531	-0.0861	3.9394	3.258	0.2382	0.0046	-0.0467	-0.4042	4.7194	4.8208	-0.7278	-0.4192	0.0432	-0.9663	-0.923	0.7267	0.4001	-0.5716	0.1925	-0.1123	-0.2343	0.2684	0.4123	4.1209	3.6974	4.6131	-0.4954	1.0849	0.5823	3.7243	0.6264	-0.7632	-0.5353	-0.4653	-0.9653	-0.3233	0.5471	-0.4687	-0.5478	0.7046	-0.1794	-0.7617	4.284	4.1896	-0.2121	-0.0446	-0.2769	0.1821	3.696	-0.3195	4.1426	-0.5621	-0.1022	-0.1018	-0.1156	0.1004	4.087	-0.8152
S087	-1.393	-0.8486	4.0988	0.6019	0.2656	-0.3892	4.5428	0.571	-0.3633	-0.0259	-0.3937	4.1317	3.1993	4.198	3.7051	-0.3486	0.4555	0.1814	-0.1752	0.5534	0.3594	3.5387	-0.0051	-0.4983	4.6171	4.0346	0.4566	0.262	0.0849	-0.0523	3.8411	3.5541	0.2159	0.4295	0.7992	-0.5888	1.2335	-0.2644	-0.2795	-0.3276	-0.0289	-0.0027	0.0607	-0.0067	0.3441	3.3763	3.4162	4.2695	-0.1925	0.6851	-1.1092	4.1448	-0.3527	-0.9272	0.3331	-0.1714	0.6706	-0.5296	0.5295	0.1537	-0.7882	-0.4169	-0.2877	-0.4453	3.1761	3.6837	-0.0827	-0.0013	0.0515	0.2512	3.7262	0.4337	3.7209	-0.394	-0.5297	-0.2387	-0.5244	-0.123	4.401	-0.0347
S088	0.9029	-0.5348	3.9535	-0.4451	1.0563	-0.3317	4.0933	-0.5142	-0.1881	-1.1016	-0.8246	4.2719	3.7634	3.7527	3.9012	0.7274	-0.3785	-0.3268	0.4094	-1.001	-0.2143	5.047	-0.6256	-0.0306	3.7149	4.7842	-0.088	-0.2507	-0.2568	0.3491	3.2817	4.0855	-0.7303	0.3775	-0.375	-0.4242	-0.1364	0.4761	-0.3699	0.0106	-0.2941	0.6628	-0.4626	0.0808	-0.4078	4.3866	4.1069	4.5542	-0.0247	-0.116	-0.3229	4.3596	-0.7119	-0.1645	0.0223	0.6351	-0.1465	-0.8533	-0.9589	0.5212	1.133	0.1812	-0.0014	-0.0604	4.8746	4.0185	0.9551	0.2155	0.3277	0.3417	4.4496	-0.479	4.2224	0.376	0.0061	-0.0795	-0.5337	0.3269	3.2887	0.5818
S089	0.1134	0.6935	3.5671	-0.2965	-0.349	0.2391	3.8475	-0.0857	-0.1497	-0.1594	-0.7336	3.4166	3.8593	3.4029	4.7599	0.1178	0.2706	0.4767	0.1257	-0.7574	0.2929	4.4094	0.57	-0.0158	4.3149	3.5355	-0.3761	-0.0013	0.3815	-0.6997	3.3751	4.5767	0.0553	0.1296	-1.065	0.3459	-0.0046	0.948	0.7125	-0.4153	0.5929	-0.0665	0.4968	-0.5176	-0.5861	4.7662	3.4057	4.1069	0.4332	0.3509	-0.5002	2.664	-0.3092	0.2284	0.3158	-0.1723	-0.5654	0.899	-0.1638	0.4267	0.5025	0.044	-0.5639	-0.2385	3.8699	3.8926	-0.5311	-0.1696	-0.2138	-0.4984	3.6333	-0.3863	4.4165	-0.4611	-0.7815	-0.1509	-0.738	-0.2137	3.9159	0.5782
